//Numpy array shape [3, 3, 1, 16]
//Min -0.384271681309
//Max 0.392817437649
//Number of zeros 0

#ifndef W27_H_
#define W27_H_

#ifndef __SYNTHESIS__
model_default_t w27[144];
#else
model_default_t w27[144] = {0.2142748088, -0.3144001961, -0.0811893567, -0.2332875878, -0.0114943897, -0.0019919516, 0.1133722886, -0.0943187550, 0.3425635695, -0.0012167792, 0.0793116912, -0.0000100657, -0.2767665684, -0.3157269061, -0.1477399915, 0.0024077480, 0.3040372431, 0.2803525925, 0.1580636799, -0.0245114192, 0.2760287225, -0.0019564894, 0.1885580868, 0.0901849046, -0.2432247996, -0.0019296929, -0.1000240296, -0.0000042859, -0.1911235303, -0.1786264777, -0.2598087192, 0.0025411795, -0.0702189952, -0.0149729196, -0.0543681718, -0.3842716813, 0.0515036620, -0.0000031898, 0.1368857771, -0.0513435677, -0.2974557281, -0.0022100669, 0.1607513726, -0.0000019634, 0.3928174376, -0.2235417217, 0.3099586666, -0.0000000004, 0.2880956531, 0.3054572940, -0.0003755470, 0.2972727418, -0.1717260778, -0.0019505755, -0.0033358941, 0.2773828506, -0.2121353298, -0.0012393629, 0.2296409607, -0.0000061572, 0.0395285040, -0.0096110115, -0.0921290219, -0.0018864827, -0.0104478141, 0.2115498185, -0.0914252624, -0.3068524897, 0.0934139714, -0.0021062628, 0.2959420383, -0.1522283703, -0.1806139797, -0.0013605112, -0.2715162039, -0.0000017934, 0.0882739276, -0.1289276332, 0.3076324463, -0.0018843588, 0.0924342871, 0.2316379249, 0.2897495329, 0.2330263108, -0.0871927813, -0.0000117165, -0.2223004103, -0.1568728685, 0.1617954373, -0.0014341007, -0.2328133434, -0.0000008370, -0.2735572755, -0.0426275991, 0.1558842510, -0.0011306113, -0.2039829791, -0.0514654666, -0.2422609031, 0.0684892833, 0.0928726345, -0.0019296787, -0.0218927227, -0.1464310735, 0.1870632321, -0.0048240265, 0.3201075494, -0.0000022107, -0.2452053875, -0.2245628685, -0.3242231905, -0.0017859554, 0.2062822580, 0.3310671449, -0.1394444704, -0.1089018956, 0.3233605921, -0.0016728357, -0.2444224060, 0.3228240311, 0.3325815201, -0.0028408593, -0.1282338053, -0.0000004542, -0.1245223582, -0.2413036674, 0.2311011702, -0.0022914610, 0.2568181157, 0.0315679200, -0.0469238758, 0.2042682618, 0.1950291395, -0.0000028211, 0.0645912439, 0.1409362555, -0.1002933532, -0.0031370558, -0.1578255892, -0.0000002477, 0.0891512707, -0.2179969698, -0.0633823723, -0.0012349322};

#endif

#endif
