//Numpy array shape [3, 3, 16, 32]
//Min -0.569062292576
//Max 0.470929056406
//Number of zeros 0

#ifndef W29_H_
#define W29_H_

#ifndef __SYNTHESIS__
model_default_t w29[4608];
#else
model_default_t w29[4608] = {-0.0440176427, 0.0023236463, -0.0318616331, -0.0000279592, 0.1238391027, -0.0047738678, -0.0044970503, -0.1140131652, -0.0119580766, 0.0529237762, -0.0295314342, -0.0604020134, -0.0345027931, -0.0410568789, 0.0188888907, -0.0115132006, -0.0035228592, -0.0488714911, 0.0507161245, 0.0940329283, -0.0111958105, -0.1718030423, -0.0472499281, 0.0243488140, -0.0058040898, 0.0188766271, -0.0023262438, 0.1156691909, -0.0737380162, 0.0490683019, -0.0089580510, -0.0565268360, 0.1629229188, 0.0797997564, -0.0913139135, -0.0478386730, -0.0176997036, -0.0005882731, -0.0031177024, 0.1213956550, 0.0266730506, -0.1362005174, 0.0602073260, 0.0798640326, 0.1313586533, -0.0306505729, -0.0527505539, 0.0533501394, -0.0270246789, -0.0887027159, -0.1304617077, -0.0132897282, -0.1167396083, -0.0579778738, 0.1278385520, -0.0103589380, -0.0046473588, -0.0510079190, 0.1777884513, -0.0631756335, -0.0230301972, 0.1562418193, -0.0982104614, -0.1313319057, 0.0800686851, 0.0892282426, -0.0471002087, -0.0300282817, 0.0051974147, -0.0040946337, -0.0048397742, 0.0160591770, 0.0456118993, -0.0425683148, 0.0318587273, -0.0231152903, 0.0683780834, -0.0369847454, -0.0362422988, -0.0621659867, -0.0281833783, 0.1312009245, 0.0489758141, -0.0469037481, 0.0027417932, -0.0465319753, 0.0802484080, 0.0513459891, -0.0109359482, 0.0103662368, -0.0342295058, 0.0549867377, 0.0428295918, -0.0069364598, 0.0065461369, 0.0144572621, -0.0063115866, -0.0046943277, -0.0204232782, 0.0035472822, 0.0725950152, -0.0002042143, -0.0038913416, 0.2216877639, 0.0142970905, -0.0294538457, 0.0263191294, 0.0231870972, -0.0036699488, 0.2650074065, 0.0071737221, 0.0381095037, 0.0244380292, -0.2126646340, 0.0250025280, -0.0017320825, 0.0055470639, -0.0268769171, 0.0226146597, -0.0188974049, 0.0083813630, 0.0958305970, 0.0861304030, -0.1099568680, 0.0304992981, -0.0157888457, 0.0072363629, -0.0201414526, 0.1265525520, -0.2793365419, 0.0578870736, 0.0655594170, 0.0564626493, 0.0000000183, -0.0002033568, 0.1056216955, -0.1252358705, 0.0895558521, 0.0177467894, -0.0316426232, 0.0915439427, -0.1260900646, 0.0634434745, -0.1005947515, 0.0628132150, -0.1641048193, 0.0856240913, -0.1808797866, 0.0554634742, 0.0276312828, -0.0169338062, -0.1811610162, -0.0134591274, 0.1013463140, 0.1664680988, -0.0634809658, 0.0214487296, 0.1023409888, 0.1042966023, 0.0818576664, 0.0971623510, 0.0182352811, 0.0086896047, -0.0688336939, 0.0154340779, -0.0010346385, -0.0043623736, -0.0436523259, -0.0588664711, -0.0451305211, 0.0209828354, 0.0258535054, 0.0336752869, -0.0239104796, 0.0569892637, -0.0216524731, -0.0785070732, -0.0882484987, 0.0704235733, -0.0526327193, -0.0667423308, -0.1191439554, -0.0658878013, -0.1846130192, -0.0103393579, -0.0901774690, 0.0613601357, -0.0162882712, -0.1030499190, 0.0300575718, -0.0799820721, 0.0135003524, 0.0434782766, 0.0198018253, 0.0078117424, 0.0021875496, 0.0338212997, -0.0054116095, -0.0048818528, 0.0509234443, 0.0723290816, 0.0464057326, -0.0579581000, -0.0155932810, -0.0643306002, 0.0608430095, 0.0396975204, 0.0126814730, -0.0055667791, -0.1513120234, 0.0432232320, 0.0176011734, 0.0849275738, -0.0160141326, -0.0209483579, 0.0489916690, 0.0015088859, -0.0966744274, -0.0614836328, -0.0267952885, 0.0604402646, 0.0097867129, 0.0707958490, 0.0491091087, 0.0993376374, -0.0217949878, 0.0018497085, 0.0061659873, -0.0659233853, -0.0025790876, -0.0002583862, 0.0663055182, 0.0873573273, 0.0602259673, -0.0427816436, -0.0107586728, 0.1297638714, 0.0318338722, -0.0045136255, 0.0125190224, 0.0851416513, 0.1008978859, 0.0871050209, 0.0226182994, -0.0528161339, 0.1547611505, 0.1275735945, -0.0625278279, 0.0026575311, -0.0482936129, -0.0202454478, 0.0162909403, 0.1261655241, 0.0020864711, -0.0016282233, 0.0006058884, 0.0216277987, 0.1178884059, -0.1210877299, -0.1284756660, -0.2008981705, 0.0000000000, 0.0000000000, 0.0257549547, 0.0594053119, -0.1425580531, -0.0350326225, 0.0842140466, 0.1675731838, 0.1246512234, -0.0996390879, 0.0144536160, -0.1773556620, 0.0139345285, -0.1056667864, 0.0134426812, 0.0164181050, -0.1598602980, 0.0975155532, -0.0752289221, -0.0132667487, -0.1746857315, 0.1433252543, 0.0062164343, -0.0662361458, 0.0267806314, 0.0001891453, -0.1417699605, 0.0719569996, -0.0239201877, 0.0591317564, -0.0079877758, -0.0131445490, -0.0001652819, -0.0040670950, 0.1923875809, 0.0190123077, -0.0326758176, -0.0242087338, 0.0293888450, 0.0192541406, 0.1194043308, 0.0140861524, 0.0494002663, 0.0205166638, -0.1182865798, 0.0375557132, 0.0436009243, 0.0024204522, -0.0575999692, -0.0435177349, -0.1056620628, 0.0269237086, 0.0505975969, -0.0077802450, -0.1173441485, 0.0009072213, 0.0004274113, -0.0050459285, -0.0192771275, 0.0107535254, 0.0788569078, -0.1472348124, -0.0447224304, 0.1692674458, -0.0050839949, -0.0040759803, 0.0520105846, 0.1218643412, -0.1143015474, 0.1239920333, -0.0336227193, -0.0263630804, -0.0309215281, 0.0021652752, 0.0018541516, -0.0741216242, -0.2116118968, 0.0090817222, 0.0424284674, -0.0471741669, -0.3221324384, 0.0640120134, 0.4709290564, -0.0054295696, -0.0967484713, -0.2108117491, 0.0446274877, -0.0471465997, -0.0620636716, 0.0617638081, -0.0040129139, 0.0216838419, -0.0442361385, -0.0368815698, 0.0522577949, 0.0178694781, -0.0043752263, -0.0049349363, 0.0745979026, -0.0516972691, -0.0354296528, 0.0047749775, 0.0266152825, -0.0556493886, 0.0587501898, -0.0575703382, -0.0508173518, -0.0734075755, 0.0416701399, 0.0505952314, -0.0355868265, -0.0588072054, 0.0958577916, 0.0007305395, 0.0578827113, 0.0027309039, -0.0213976130, 0.0214040037, -0.0924007669, 0.0160322469, -0.0276523046, 0.0328152180, -0.0792313665, 0.0535996668, -0.0141728157, -0.0035068798, -0.0445638672, 0.0818003416, 0.0000000010, -0.0037455775, -0.0494430736, 0.0155731263, -0.0557052381, -0.0823130533, 0.0115425903, -0.0206469409, -0.2603248656, 0.0144781265, 0.0222394168, -0.0155587066, -0.3226855099, -0.0319051147, -0.0496366359, -0.0897309259, -0.2371976674, -0.0458202660, 0.0163571760, -0.0043046996, -0.1496304274, 0.0198805947, 0.0684295222, -0.2312425673, 0.0766391307, -0.0344877020, -0.1099330336, 0.0370941423, -0.0376739241, 0.0770753622, -0.0115763787, -0.0051421043, -0.0037796746, -0.0049002138, -0.1228268668, 0.0213954691, 0.0323850401, -0.0186951682, -0.0157806426, 0.0903307572, 0.0383395553, 0.0425072014, 0.0710109249, -0.0383833088, 0.0750733241, 0.0593191758, -0.0372883789, 0.0464708917, -0.0900487974, 0.0101314755, -0.1189970598, -0.0039654891, -0.0640436336, 0.0501797684, 0.1091693491, 0.0287091285, -0.0597982667, -0.0180249643, 0.0672852993, 0.0000000070, 0.0000663334, 0.0000000000, 0.0000000000, 0.0000000000, -0.0000000000, -0.0000000000, 0.0004916756, 0.0001783552, -0.0000000000, 0.0000000000, 0.0000000000, 0.0000000000, -0.0000000000, 0.0000000000, 0.0000502291, 0.0000000008, 0.0000000003, 0.0000000000, 0.0000039329, -0.0000001329, 0.0000000000, 0.0000002756, 0.0000000049, 0.0000000000, -0.0000002813, -0.0000000006, 0.0002894961, 0.0000000000, 0.0007882208, -0.0000000000, -0.0000013726, 0.0288145710, -0.0339094624, 0.0360464081, 0.0162325893, 0.0038876892, -0.0042925905, -0.0044279597, 0.0699928328, -0.0502743945, 0.0317752920, 0.0245733708, -0.0034823772, -0.0198091958, -0.0482227318, 0.0600904673, -0.0841255859, -0.0288667846, 0.1467311680, -0.0398930423, -0.0672537982, -0.0359205268, 0.1049549431, -0.0428511277, -0.0924651325, -0.0011764632, -0.1543315202, -0.0053218962, -0.0753796995, -0.0226794127, 0.0366720557, 0.0368223265, 0.0247060321, -0.0354231708, 0.0967297181, 0.0038375664, -0.0278007202, 0.0319640934, -0.0039373655, -0.0044916566, -0.0625761971, -0.0669627413, -0.0237447731, -0.0087851733, -0.0148641793, 0.0193029605, 0.0373940244, -0.0307330936, 0.0083509637, 0.0030282983, -0.1413892806, 0.0442590676, -0.0238181874, -0.0092013301, -0.1970131844, -0.0369265862, 0.0321030058, -0.0054267878, -0.0330104567, -0.0378158242, 0.0767004266, -0.0788810700, 0.0473331138, -0.0092191929, 0.0352160148, -0.1425487399, -0.1833256632, 0.0449843518, 0.0768240020, 0.0414729230, -0.0025608400, -0.0032090577, -0.0053874124, -0.0395560227, -0.1408032626, -0.1521996260, 0.0664416477, 0.0910847262, 0.0827957541, -0.0067920275, 0.0449886508, -0.0664632842, 0.0209145769, -0.0823245719, -0.0416699722, 0.0519547760, 0.1439504772, -0.0411859006, -0.0679487735, -0.0034997177, 0.1131961644, 0.1281187385, -0.0447379798, 0.0384616368, -0.0676038638, -0.0225769673, -0.0276617259, 0.0253506508, 0.0391030386, 0.0647213235, -0.0159541629, -0.0244854502, -0.0040658605, -0.0048404988, -0.0124177225, -0.0123476200, -0.0482214317, -0.0285570733, -0.0259423368, 0.0209888127, -0.0245531462, -0.0683484226, 0.0259969886, 0.0289103519, 0.0448652804, -0.0687025338, 0.0080839125, 0.0131936418, -0.0045029446, -0.0107917413, -0.0617185049, -0.0110088792, -0.0935555175, -0.0672526509, 0.0795696601, -0.0154949902, 0.1220854521, 0.1002219766, -0.0044446816, -0.0355116539, 0.0076309093, 0.0258412678, 0.0180772971, 0.0839625597, -0.0001736330, -0.0039183898, 0.1457866728, 0.0198420174, 0.0045739296, -0.0074534500, 0.0000216303, 0.0274793841, 0.2335315496, 0.0423828699, 0.0379854105, 0.0276312642, -0.1729695797, 0.0549773350, -0.0050539309, 0.0142822163, -0.0086220112, 0.0232266411, 0.0264799874, 0.0120816939, 0.0982674286, 0.1071927324, -0.1401378065, 0.0520760305, -0.0428748354, -0.0108890729, -0.0016796206, 0.2017756402, -0.2930651903, -0.0511148572, -0.1212182641, 0.1712692082, 0.0000000006, -0.0000868729, 0.2674926817, -0.0482634008, 0.0823170543, -0.1013336480, -0.0019128765, 0.1004164740, 0.0414495729, 0.0850064456, -0.1004949212, 0.0546740927, -0.1704249531, 0.0852591470, -0.1962772608, 0.0849987417, 0.0668844357, 0.0455307476, -0.1158125997, -0.0087818373, 0.1048741415, 0.2869608998, -0.0416574590, -0.0039805993, 0.1528482586, 0.1196447760, 0.0664687902, 0.0402686894, -0.0154490992, -0.0014526208, -0.0053984053, -0.0569798611, -0.0013260015, -0.0043934342, 0.0475261137, -0.0538313091, -0.0374237336, -0.0053394488, 0.0489243902, 0.0104509499, -0.0857792720, 0.0267609488, -0.0110764196, 0.0283711068, -0.1067373678, -0.0733320937, -0.1024193913, -0.0575779453, 0.0208894275, -0.0099298414, -0.0742618963, -0.0085901292, -0.0282411762, 0.0757160634, 0.0371535048, 0.0246739965, 0.0812304914, 0.0157957356, -0.1045583636, -0.0271615423, -0.0676005706, 0.0099682482, -0.0665439293, 0.0585473478, -0.0054526199, -0.0048857792, -0.0032032668, 0.0848302171, 0.0331724398, 0.0470894389, -0.0219911356, 0.0304937493, 0.0694049448, -0.0374472104, -0.0111774774, -0.0585903302, -0.1404216588, 0.0654768124, 0.0755770355, -0.0044920100, 0.0255067684, 0.0390517302, -0.0221168660, 0.0018985147, -0.0315171778, -0.0892958567, -0.0441026874, 0.0718456060, -0.0012157274, -0.0332558230, 0.0563958585, 0.0211510938, -0.0605855063, -0.0459219180, 0.0051921732, -0.0355291888, -0.0027182293, -0.0001577591, 0.0180315766, -0.0550049655, -0.0386932977, -0.1341449916, -0.0003497430, 0.0225642622, 0.2262232155, -0.0239775721, 0.0647712424, -0.0615046211, 0.1037892401, 0.0850851908, -0.0255435538, -0.0482238121, 0.0549559668, 0.0182806998, -0.1499179453, 0.0028894832, -0.1128265560, -0.0431137942, -0.0828664750, 0.0642766282, 0.0354231037, 0.0830631927, 0.0652505010, -0.0125978002, 0.0205829069, -0.1117098778, -0.0834842026, -0.2291267365, 0.0000000000, -0.0000000000, 0.0500542633, -0.0185724664, -0.1543056518, -0.0082385736, 0.0789345279, 0.2138957381, 0.1040838957, -0.1031647623, -0.0539807603, -0.1044414490, -0.0104310028, -0.1057204828, -0.0679167211, 0.0849979892, -0.1667302251, 0.1017028019, 0.0018798562, -0.0121030239, -0.0970093012, 0.0635611564, 0.0171672646, -0.0698789731, -0.0065649985, 0.0189678743, -0.0915961415, 0.0486046858, 0.0069508934, -0.0507203154, 0.0325555205, 0.0807894096, -0.0001513409, -0.0040850015, 0.0694118887, 0.0847070441, 0.0444245674, -0.1019025669, 0.0041128881, -0.0447331071, 0.0334541127, 0.0023620310, -0.0735951290, 0.0724675432, 0.0331336930, 0.0262525976, -0.0469199419, 0.0152606815, 0.0111939060, 0.0048200679, -0.0932042152, 0.0323335193, -0.0083221011, 0.0016066519, -0.1954296529, 0.1033206284, 0.0221883971, 0.0015710698, -0.0462416522, 0.0086943088, 0.1254012138, -0.1777617335, -0.1820344627, 0.0270815920, -0.0048698774, -0.0040654596, 0.0118677672, 0.1181552038, -0.2157887965, 0.2235880047, -0.0075778938, -0.0838883966, 0.0561429597, -0.0448399074, 0.1783815473, -0.1497306079, -0.1863215268, -0.1001315787, 0.1553016752, -0.1012922078, -0.4452272058, 0.0264470950, 0.4143604636, -0.0068936083, 0.0133831576, -0.2435899377, 0.0487419330, -0.1019571051, -0.0188237410, 0.0876120999, -0.1700926125, 0.0145575218, -0.0175130870, 0.0436039604, 0.0069751088, -0.0292505305, -0.0044515817, -0.0049412246, 0.0825134739, -0.0527844951, -0.0075367158, 0.0325859413, 0.0151331341, 0.0090187974, -0.0020802347, 0.0191993471, 0.0870750621, -0.0748209730, -0.0079070125, -0.0407026224, -0.0268965606, -0.0254494771, 0.0572806634, 0.0653231367, 0.0013890271, 0.0028097068, -0.0868818462, -0.0799919218, -0.1353153288, -0.0254959129, -0.0007607469, -0.0532812178, 0.0290971678, -0.0059379777, -0.0511082001, 0.0356072858, -0.0170198549, 0.0751840025, -0.0000421314, -0.0037319930, 0.1871082336, -0.1087158620, -0.1858741641, 0.0578800477, 0.0555578172, 0.1158365905, -0.1014402285, 0.0526274666, -0.0096084485, -0.0051908419, -0.1387274563, -0.0754202306, -0.1022447720, -0.1190850735, -0.2765259743, 0.0320574678, 0.0778739303, -0.0019158894, -0.1088600010, 0.0538881980, 0.0334428102, -0.0546458885, 0.0936135203, 0.0260232668, -0.1171827018, 0.0565274246, -0.0546929576, 0.0419181474, 0.1088564023, 0.0670672059, -0.0038019586, -0.0049039521, -0.0337322876, -0.0109925978, 0.0685203448, 0.0428038910, 0.0025380310, 0.0217443928, 0.0797000006, 0.0890382379, -0.0538710542, 0.0126382532, 0.0566167347, 0.0298077557, 0.0178167820, -0.0023627644, 0.0365323089, -0.0885574669, -0.0285976548, -0.0031944567, 0.0826262534, 0.0737895817, 0.0139955422, -0.0130824652, 0.0640441775, -0.0990453064, -0.0010690717, -0.0000007520, 0.0000045550, -0.0000000000, 0.0000000000, -0.0000000000, 0.0000000000, 0.0000000000, 0.0006245098, 0.0001516854, -0.0000000000, 0.0000000000, -0.0000000000, -0.0000000000, 0.0000000000, -0.0000000000, 0.0000195562, 0.0000000013, 0.0000000002, -0.0000000000, 0.0000000002, -0.0000005047, 0.0000000000, 0.0000000792, 0.0000000026, 0.0000000000, -0.0000020210, -0.0000000002, 0.0001274706, -0.0000000000, 0.0014235990, 0.0000000000, -0.0000023252, 0.0653512105, 0.0606951378, 0.0058325445, -0.0204615556, -0.0402673483, -0.0043195095, -0.0044284188, 0.0505106896, 0.1250759959, 0.0185713619, -0.0108702425, -0.0079882583, 0.0251790695, -0.0878674388, -0.0052493154, 0.0379827023, -0.0029076531, 0.0377579033, -0.0728969872, -0.0140128117, 0.0069305561, 0.0356135480, -0.0118835010, -0.0731446296, -0.0005809158, -0.0528827682, 0.0162080266, -0.1202780306, -0.0505133718, -0.0517466776, -0.0145590371, 0.0734884292, 0.0312531553, -0.0554303452, 0.0067491634, -0.0239560865, 0.0118404124, -0.0039152396, -0.0044958168, -0.0023825364, -0.0447898246, 0.0279236790, 0.0420906022, -0.0084966021, -0.0351432450, 0.0476382412, 0.0389135443, -0.0484363101, 0.0184528809, -0.1108334884, 0.0217495002, -0.1294246763, 0.0468446873, -0.1819552630, -0.0763285980, 0.0057852953, -0.0053998861, -0.0234920457, -0.0103947707, -0.0141631030, 0.0113183847, 0.0746016577, -0.0125246868, -0.0532805994, -0.0455864035, 0.0150161711, -0.0721128955, 0.1219067499, -0.0441969112, -0.0031291607, -0.0034242156, -0.1103515327, 0.0282172579, 0.1396884024, -0.0545768104, -0.0008896813, -0.0594017617, 0.0682896450, 0.1198103949, 0.0928373188, 0.0618923269, -0.0204658099, -0.0164989568, 0.0561587997, 0.0668348074, 0.2074016333, -0.1668111682, -0.3236658573, -0.0036661518, 0.0220446493, -0.0587766469, -0.0193925407, 0.0488677695, -0.0953969732, 0.0118662156, 0.0803795531, 0.1028608754, -0.0617245734, -0.0346533768, -0.0667521805, 0.0514659025, -0.0040398394, -0.0048451331, 0.0492971614, 0.0377096348, 0.0892223045, -0.0320769660, -0.0361780599, 0.0129250381, -0.0953994989, -0.0580067150, 0.0690602511, 0.0600600876, 0.0355607830, 0.0566029623, 0.0231628157, 0.0752488449, 0.0183498897, 0.0713290870, -0.0353841968, -0.0111726783, -0.0013946239, -0.1170121431, 0.0560525395, -0.0125329550, 0.1013586596, 0.0084782951, 0.0727945715, -0.0394077078, 0.0388301946, 0.0162008945, 0.0274426620, 0.0746249482, -0.0000340331, -0.0039215921, 0.1280419379, 0.0182303190, 0.0029696557, 0.0104503520, -0.0167945139, 0.0544032454, 0.2112848014, 0.0486864224, 0.0472556539, 0.0274766963, -0.1690398306, 0.0573429689, 0.0137994196, 0.0070331087, 0.0129288770, 0.0303876624, 0.0923070610, 0.0129316812, 0.1044089571, 0.1260572970, -0.1421892494, 0.0669533834, -0.0574580580, -0.0284234583, -0.0104152970, 0.1218628660, -0.2041767985, 0.0279340390, -0.0115140993, -0.2678272128, 0.0000000000, -0.0000000000, 0.0546771623, -0.3332045972, 0.0007616447, -0.2216462940, -0.0127714863, 0.0948982537, 0.2168488204, -0.0699251443, -0.3265741765, -0.0889418721, 0.0827682093, -0.0541550964, -0.3310460150, 0.3554261029, 0.0021206306, -0.1136909202, -0.3751528263, 0.0011781923, 0.0365861692, 0.1012741029, -0.3077543080, -0.0002030974, 0.0740015432, 0.0553880818, 0.0629508868, -0.0149483019, 0.0509401485, 0.0060754181, -0.0130890934, -0.0268747453, -0.0018682592, -0.0044654701, -0.0067396290, -0.0381179787, -0.0123269958, 0.0331441015, 0.0363628492, -0.0490262918, -0.0828034952, 0.0489247032, 0.0388927273, 0.0439271107, 0.0453174748, -0.0011173279, -0.0833524019, -0.0266670231, 0.0384473205, 0.1052433550, -0.0572485924, -0.0092177885, -0.0703679547, -0.0550627708, -0.0510731153, -0.0117805414, -0.0102017885, -0.0393557921, -0.0593363307, -0.0202032588, 0.0921240821, -0.0698965341, -0.0614909753, 0.0370352380, -0.0054669948, -0.0048820945, -0.0087789362, 0.0037826383, 0.0425689965, 0.0432794914, -0.0158625245, -0.0732460245, 0.0367115475, 0.0083879856, 0.0895424783, 0.0876101702, -0.1274167746, -0.0489262827, -0.0066893180, -0.0105105564, 0.0125120580, -0.1149384826, 0.0941100195, 0.0023518428, -0.0923198313, -0.1316257864, 0.0757787377, -0.0286943670, -0.0683544427, -0.0297671277, -0.0261597894, 0.0293879062, 0.0123630939, 0.0193340145, 0.0007700163, -0.0923012123, -0.0030021709, -0.0000138685, 0.0071258033, -0.0581355914, -0.0116559109, -0.0927590728, -0.0112564415, -0.0620862581, 0.2062508911, 0.0339796729, -0.0272977687, -0.0218034107, 0.1050670147, 0.0765974298, 0.0193723552, 0.0099595888, -0.0600479804, -0.0515745059, -0.2216665447, 0.0067625577, 0.0069968188, -0.0881454274, -0.0181225222, 0.0591652319, 0.0171307828, 0.1427659243, 0.0979311019, -0.0231161118, -0.0895960778, -0.1108591855, -0.0687693730, -0.2370871753, 0.0000000000, 0.0000000001, 0.0677902102, -0.0624686927, -0.1585757285, 0.0085843978, 0.0342888981, 0.2513855100, 0.0105270222, -0.1081139520, -0.1485378593, -0.0817469582, -0.0085912067, -0.0721789971, -0.1221760362, 0.1141168103, -0.1555035114, 0.0879122615, 0.0760118365, -0.0118555613, 0.0225867573, -0.0303599630, 0.0351421572, -0.0366503261, 0.0081226937, 0.0317440592, -0.0084167765, 0.0016253635, -0.0269719586, 0.0105017088, -0.0581310242, 0.0051927278, -0.0000287206, -0.0040429295, 0.0740616322, 0.0163544808, 0.0480577573, -0.0514064319, 0.0039338022, 0.0464390591, 0.0854204223, 0.0045532826, -0.0218267292, -0.0123008471, -0.0907416120, 0.0894559100, -0.0053337091, -0.0499695763, 0.0120403301, -0.0147888707, -0.0157888941, 0.0322041214, 0.1020120084, 0.0662816241, -0.0663875788, 0.0057939682, -0.0652026981, -0.0310425386, -0.0225989409, -0.0120320879, 0.1174263284, -0.1720582098, -0.1239221767, 0.0106855258, -0.0046071052, -0.0039593023, -0.0193465091, -0.0114234500, -0.3484737873, 0.0816017836, -0.0131348651, -0.0661069378, 0.1913637072, -0.1027534679, 0.0142730679, -0.0743271783, -0.0937595218, -0.1056518331, -0.0035456575, 0.0127615519, -0.5690622926, 0.0900142938, 0.1966619939, -0.0064695976, -0.0391891934, -0.2582708299, 0.1237710342, -0.1862179041, 0.0168595091, 0.1472342312, -0.1686253399, -0.0246074069, -0.0366117395, -0.0585102588, 0.0827202573, 0.0323252045, -0.0045141340, -0.0049455510, 0.0492092818, 0.0159614813, 0.0668377280, 0.0849516541, -0.0130013591, -0.1062567905, -0.0474917293, 0.0670543090, -0.0105689028, -0.0402433984, -0.0009064177, -0.0754481032, -0.0434861183, -0.0386771597, 0.0945435539, 0.0430207066, -0.0095886365, 0.0026521562, -0.0658424944, -0.1032503471, -0.0605078228, 0.0406854153, -0.1126056165, -0.0760574415, -0.0473777689, -0.0195611063, -0.0967479721, -0.0002912751, 0.0928096622, -0.0698680505, -0.0003773636, -0.0038544773, 0.0977521166, 0.0273905136, -0.1626490355, 0.0347177945, 0.0309413522, -0.0198810492, -0.1217677370, 0.0645750836, -0.0681166202, 0.0451002121, -0.2283872962, -0.0345461443, -0.1018557623, -0.1569196582, -0.1350231469, 0.1169382855, 0.1500873417, -0.0035133420, -0.1879733056, -0.0828239769, 0.0170037467, 0.0049301372, 0.0084963012, -0.0929169431, -0.1108130142, -0.0210507475, 0.0128670419, -0.0214468576, 0.0508721285, 0.0514789037, -0.0039021992, -0.0049149427, -0.0559321605, -0.1123604104, 0.0169692840, -0.0480035730, -0.0104354070, 0.0177471284, -0.0670515075, 0.0556712076, -0.0486169197, 0.0614096746, 0.0642262176, 0.0403781720, -0.0706144273, 0.0854189470, -0.0383489616, -0.0689792484, -0.1197736189, -0.0026494951, 0.0291964579, 0.0537796207, 0.0300729144, 0.0544837266, -0.0084864125, -0.0122723170, -0.0468063019, 0.0000065502, 0.0000000022, -0.0000000000, 0.0000000000, 0.0000000000, -0.0000000000, 0.0000000000, 0.0007330075, 0.0001060999, 0.0000000000, 0.0000000000, -0.0000000000, 0.0000000000, -0.0000000001, -0.0000000000, 0.0000000702, 0.0000000002, -0.0000000001, 0.0000000000, -0.0000000000, -0.0000007701, -0.0000000000, 0.0000000023, -0.0000000009, 0.0000000000, -0.0000032462, 0.0000000000, 0.0001595938, 0.0000000000, 0.0019918333, -0.0000000000, -0.0000031309, 0.0375247113, 0.1061019599, -0.0102829365, -0.0765508562, 0.0275814217, -0.0043307082, -0.0043702181, 0.0396450236, 0.0031224305, 0.0014110139, -0.1086728498, -0.0112074018, 0.0168389399, 0.0276234671, -0.0178396627, 0.0578367785, -0.0760250464, 0.0664853677, -0.0182090551, 0.0949555337, 0.0352456123, 0.0471285246, -0.0427701138, -0.0455448292, 0.0004922822, -0.1112442091, -0.0143641727, 0.0390456691, -0.0251199901, -0.0724588484, 0.0734348968, 0.0197528005, -0.0527828112, 0.0633084178, 0.0021017301, 0.0273163393, 0.0234583206, -0.0047133220, -0.0044674804, -0.0809714198, -0.0048941057, -0.0515512973, -0.0002444883, -0.0610075258, -0.0486030951, -0.0752025768, 0.0525965579, -0.0261891689, 0.0175667237, -0.0612324588, 0.0477688350, 0.0438155346, -0.0571202561, -0.1534038335, -0.0085273655, 0.0236161742, -0.0071053533, -0.0538994409, -0.0237088613, 0.0310000665, -0.0904603973, -0.0762644410, -0.0911194608, -0.0509054437, 0.1820690781, -0.0196863748, -0.1206266955, -0.0878886804, 0.0313120782, -0.0005354619, -0.0028683098, 0.1428798139, 0.0235123709, -0.1666612923, 0.0982163176, 0.0729805902, 0.0909520611, -0.0641454458, -0.1026401222, 0.0025003499, -0.0903919637, -0.1404758692, -0.1480374932, -0.0054056686, -0.1024920121, -0.0722106025, 0.0541624762, -0.0000768411, -0.0058233952, -0.0620588399, 0.1447731704, -0.0158256982, -0.0625912994, 0.1954790503, -0.0780094415, -0.1380518675, -0.0337350927, 0.0275577512, 0.0064929328, 0.0500442795, 0.0463881567, -0.0050109476, -0.0048560756, 0.0871344954, -0.0045658760, -0.0693987086, 0.0879301205, -0.0031150652, -0.0656213760, 0.0357301347, -0.0405748747, -0.0074168709, 0.0103169307, 0.0001203774, 0.0446858779, 0.0630499646, 0.0836130902, 0.0764980242, 0.0011859467, -0.0103854137, -0.0104556242, -0.0387824662, 0.0351795703, -0.0255294386, 0.0024694712, 0.0539781563, -0.0027068707, 0.0046332674, 0.0138785718, -0.0556748658, 0.0003154754, -0.0262654815, 0.0435768291, -0.0002013383, -0.0035001040, -0.1002552286, -0.0090449797, -0.0790851787, -0.0604589246, -0.0085007269, 0.0209021214, 0.0679587945, 0.0002730734, 0.0319178626, -0.0027618106, -0.1464611143, -0.0111846663, 0.0072861258, 0.0004158531, -0.0968002975, -0.0151339779, 0.0794117600, 0.0025749237, 0.1547390372, -0.0091613373, 0.0302697159, -0.0180705301, -0.0353726819, 0.0492817201, -0.0436486751, 0.0145158237, -0.1915708929, 0.0806855187, 0.0608300939, -0.0175419748, -0.0000007560, -0.0004262026, 0.0775219500, -0.1448222250, 0.0716595426, -0.0686010793, -0.0217113513, 0.0945966169, -0.2082816064, 0.0662083253, -0.1220556945, 0.0628931150, -0.1413117498, 0.0726869628, -0.1442394257, 0.0762300119, 0.1275408268, -0.0607004426, -0.1692347676, -0.0133116590, 0.0901852995, 0.0926441103, -0.0103128459, 0.0463406444, 0.1213257164, 0.0611929223, 0.0819895715, 0.0821144804, -0.0315095894, 0.0527060069, -0.0320981368, -0.0349110886, -0.0009340924, -0.0043083639, -0.0011856130, -0.0647500455, -0.0789533183, -0.0782041773, 0.0278274659, 0.0552079082, -0.1056611314, 0.0485678613, -0.0483605340, -0.0402620696, 0.0409739688, 0.0153121650, -0.0759613365, -0.0795053318, -0.1186381131, -0.0084709954, -0.0829594508, -0.0121626873, -0.1174034923, -0.0439940915, -0.0021413211, -0.0596786179, 0.0026547331, -0.0767525733, 0.0451975539, 0.0346638300, -0.0736350268, 0.0186911374, -0.0078008412, 0.0624003634, -0.0054145078, -0.0048728469, -0.0742475167, -0.0781895667, 0.0290709864, 0.0023735315, -0.0295829568, 0.0346100368, 0.0084874695, 0.0676484928, -0.0541212298, -0.0151307778, 0.0633001700, 0.0645089671, -0.0365131833, -0.0751675144, 0.0153282974, -0.0413155891, -0.0350797474, 0.0012305401, -0.0445846766, -0.0264417585, 0.0915823504, -0.0218841061, -0.0505662747, 0.0963622034, 0.0066232299, -0.0272532664, 0.0448308252, 0.0028907813, 0.0924086720, 0.0030692059, -0.0025203736, -0.0002617767, 0.0103262188, -0.0255484246, 0.0994089618, -0.0403060019, -0.0074696387, 0.0457156897, -0.1083043590, 0.0354392193, 0.0173550788, 0.0209448226, 0.0538051128, 0.1161842719, 0.0752428547, -0.0503498092, 0.1285043508, 0.0955393165, -0.0200617183, 0.0043428955, -0.0390952043, -0.0531162806, -0.0554697961, -0.0124329366, 0.0191274006, -0.0632990524, 0.0126106255, -0.0471606106, -0.0459165238, 0.1250760108, -0.1294172108, 0.0456374064, -0.0002175920, -0.0012108414, 0.0313129164, -0.0810608268, 0.1105599329, -0.0654013082, 0.0480050296, 0.1173345447, -0.0374584161, -0.1575922519, -0.0549407601, -0.0484532490, 0.0411525331, -0.0008025830, -0.0405181088, 0.0289795026, 0.0889700651, -0.0358910598, -0.1000797451, -0.0078277895, 0.0241878703, 0.0182325151, 0.0679406598, 0.0019190023, 0.0732520372, 0.0683921725, 0.0491049401, -0.0569095202, -0.0535611808, -0.0038268531, -0.0277468283, -0.1267458946, -0.0003319514, -0.0039328025, 0.0873788372, 0.0123173296, -0.0061980421, -0.1520698965, 0.0077916966, 0.0025842716, -0.0126136029, 0.0299313050, -0.0014954766, -0.0577464551, -0.0074259010, 0.0586649925, 0.0026206165, 0.0589262582, 0.0389188603, -0.1070086062, -0.0097976280, 0.0188685749, 0.1774008870, -0.0189075954, -0.0020647098, -0.0470418967, 0.0232897177, -0.1118118241, -0.0398263074, 0.0747204944, 0.0904619098, -0.1742341369, -0.1122292653, 0.1233525947, -0.0051027108, -0.0040938128, -0.0637009963, 0.1405430287, -0.0786484331, 0.0552288219, -0.0313819721, -0.0095390435, -0.0979557931, 0.0091617722, 0.1272895038, 0.0358905680, -0.0600843541, 0.0487715751, 0.1171417981, -0.0180480983, 0.0258111991, 0.0302732959, 0.3166407049, -0.0057623056, -0.0193643868, -0.2305992842, -0.0030829473, 0.1085527912, -0.0856108442, 0.0518040806, -0.0090981610, 0.0805440322, 0.0045198253, 0.0349799022, 0.0313603617, 0.0384551957, -0.0044072308, -0.0049397680, 0.0568906143, -0.0657268912, 0.0247381702, -0.0767258778, 0.0192374699, -0.0334192142, -0.0662198514, 0.0327090025, -0.0140262814, -0.0076143253, -0.0504365154, 0.0252783243, -0.0416561328, -0.0298494045, 0.0836005583, 0.0756112933, -0.0718103126, 0.0037277036, -0.0852351859, 0.0676403269, 0.0476105250, 0.0092067597, 0.0707004070, -0.0040511996, 0.0536695607, 0.0196015015, -0.0050939396, -0.0545158722, -0.1077257916, -0.0524465181, -0.0000000001, -0.0036850800, 0.1379371583, -0.0279511474, -0.0818116665, 0.0829068050, 0.0322561823, 0.0114023024, -0.1344438642, -0.0289715510, 0.1348640472, -0.0684248731, -0.2747746408, -0.1428444833, -0.0996565595, -0.0007306528, -0.3497073352, 0.0737964958, 0.0902000815, -0.0059274826, -0.0264914371, 0.1328701824, -0.1899176091, -0.1886996627, 0.0259037707, 0.1715411395, -0.0534504727, -0.0674727559, 0.0622931682, -0.0069436668, 0.0615601391, -0.0438239574, -0.0037471196, -0.0048729815, -0.1151089966, -0.1036333814, -0.0538940355, 0.0037914820, -0.0297500771, 0.0511044748, 0.0016078700, -0.0303724185, -0.0003362866, 0.0590134747, 0.0936434865, 0.0287488252, -0.0912053064, 0.0381778143, -0.0969467834, -0.0138390968, -0.0124850553, -0.0052396161, 0.0393911451, 0.0857959315, 0.1163812578, 0.0107572004, 0.1133738905, -0.0696574152, 0.0130827017, 0.0000011028, 0.0002044103, -0.0000000000, 0.0000000000, 0.0000000000, -0.0000000000, -0.0000000000, 0.0025075718, 0.0011438789, -0.0000000000, 0.0000000000, 0.0000000000, 0.0000000010, 0.0000000000, -0.0000000000, 0.0006488446, -0.0000001312, -0.0000000001, -0.0000000000, 0.0003131412, -0.0000191407, -0.0000000000, 0.0000018812, -0.0000000003, -0.0000000000, -0.0000712126, -0.0000000020, 0.0000993070, 0.0000000000, 0.0008147797, 0.0000000000, -0.0000274413, 0.0198753066, -0.0911406577, -0.0251523126, 0.0546104610, -0.0189341214, -0.0043190592, -0.0044942293, 0.0214298349, -0.0542516969, 0.0556989461, -0.0201006886, -0.0120043345, -0.0798355043, 0.0327186473, -0.0500920452, -0.0614885166, -0.0029151402, 0.0623429455, 0.0527482815, 0.0563071370, 0.0728954077, 0.0933238193, -0.0000094547, -0.0431686901, 0.0004007843, -0.1069185063, -0.0565205775, -0.0834886059, 0.0070212223, -0.0284173451, 0.0047974577, -0.0585358851, -0.0245159455, 0.0692977533, -0.0390378460, -0.0299551636, -0.0509932339, -0.0039009911, -0.0044591255, 0.0269759186, 0.0236880407, -0.0442348495, 0.0612070747, -0.0093786260, 0.0117714144, 0.0493227355, -0.0485369414, 0.0029098545, 0.0463974439, -0.0564843602, 0.0680827200, 0.0556987263, 0.0135575915, -0.1429592967, -0.0225549173, 0.0430843830, -0.0070582544, -0.0863916799, -0.0588282235, 0.0247977357, -0.0984067917, 0.0472736843, -0.0889932066, -0.0142459171, -0.1301151067, -0.2395627946, 0.0272622239, 0.0143308565, 0.0622223094, -0.0026960410, -0.0030512204, -0.0109600360, 0.0279992204, -0.1905799955, -0.0958691388, 0.0615102574, -0.0338706337, 0.0708226115, -0.0153982332, 0.0449725240, -0.1093465909, 0.1298829764, -0.1325963438, -0.0584259033, 0.0443382636, 0.0982894450, -0.1175547615, -0.1521553248, -0.0045613688, 0.1096399799, 0.0346159674, 0.0541715026, -0.0005499361, -0.1801885664, -0.0188025218, -0.0542617589, -0.0317475796, -0.0875773281, -0.0210542772, -0.0580386296, 0.0515149757, -0.0040731519, -0.0048584132, 0.0367122442, 0.0931901410, 0.0295996070, 0.0778562054, -0.0205788761, 0.0877794176, -0.0522596724, -0.0219199788, -0.0421492830, 0.0317140147, 0.0404860936, -0.0234450530, -0.0498098321, -0.0127056986, 0.0076267342, -0.0085075982, 0.0908181444, -0.0105224885, 0.0254190415, -0.0274595115, -0.0675716326, -0.0003421646, -0.0213164538, -0.0049849744, 0.0680944547, 0.0034522936, -0.0420116112, -0.0001405362, 0.0004702993, 0.0417908132, -0.0002235344, -0.0035275051, -0.1337873936, 0.0049613784, -0.0878797472, -0.0567396581, -0.0221468359, 0.0122332722, 0.0562098362, 0.0081782136, 0.0621804520, 0.0091402810, -0.1519319266, -0.0365114138, 0.0116040157, -0.0047450382, -0.1149113700, -0.0044052172, 0.1325626820, 0.0041893842, 0.1539312005, -0.0195802283, 0.0438272730, -0.0262218174, -0.0430469289, -0.0359661914, -0.0395353995, 0.0013492745, -0.1904574633, 0.0464191660, -0.1034802124, 0.0392081924, 0.0000000157, -0.0002676465, 0.0946829319, -0.0587263778, 0.0877065435, -0.0883641466, 0.0076803458, 0.1370409876, 0.0498395450, 0.0836901739, -0.0688699931, 0.0529514886, -0.1846180558, 0.0815871507, -0.1023979858, 0.0831917599, 0.1979285777, -0.0355307646, -0.1288349628, -0.0094675906, 0.0406186432, 0.1956772953, 0.0238834824, -0.0072801127, 0.1146160662, 0.0700490549, 0.0777115822, 0.1144892052, -0.1128823087, -0.0078210039, -0.0570508987, 0.0373422094, -0.0011835132, -0.0043408661, 0.0945991799, -0.0908879340, 0.0475857556, 0.0196451005, 0.0451758504, 0.0624944083, -0.0411721617, 0.0174023993, -0.0582670197, -0.0214508362, -0.0137369419, -0.0612518191, -0.0728842169, 0.0453941599, -0.0619934760, 0.0992363244, -0.0280822925, -0.0111536384, -0.0139758550, 0.0601885058, -0.0130477501, -0.0120379934, 0.0263516530, -0.0011407357, 0.0389788039, 0.0070321695, 0.0082680658, 0.0091967657, 0.0675975829, -0.0100355828, -0.0054470748, -0.0048746504, -0.0737892389, 0.0193399973, 0.0574396737, 0.0117236422, -0.0266006682, -0.1052122340, -0.1057590321, 0.0230155978, 0.0250955280, 0.1019588336, 0.0670990497, 0.0380171835, 0.0744949356, -0.0718816072, 0.0644993484, -0.1390560716, 0.0649012551, 0.0015998959, -0.1032664627, 0.0215248335, 0.0785428360, -0.0329435244, 0.0838962942, -0.0163686536, 0.0093651004, -0.0439747684, 0.0855730921, 0.0107290754, 0.0573681705, -0.0179443359, -0.0024815500, -0.0001330361, 0.0021085690, -0.0538514704, 0.0055876086, -0.1162548885, 0.0012659564, -0.0014508748, 0.0984585211, 0.0001392208, 0.0988374576, 0.0863344222, 0.1080951169, 0.1351097226, 0.0442819260, -0.0603480265, 0.0578499399, 0.0135694025, -0.0161304995, 0.0049978844, 0.0139263636, -0.0738821998, 0.0138736675, -0.0191943981, -0.0368228070, -0.0735314414, 0.0059557720, -0.0791380107, 0.0181848723, 0.1129527241, -0.1020717695, 0.0589295477, -0.0002438108, -0.0011891039, 0.0369197093, -0.0664030686, 0.0831291154, -0.0468200780, 0.0074844505, 0.1089718640, -0.0405254327, -0.1314253062, -0.0345020778, -0.0358880311, -0.0043922067, -0.0135327028, 0.0012556551, 0.0492089652, 0.0837196261, -0.0293316599, -0.0924735665, -0.0073510637, -0.0030378900, -0.0294717476, 0.0868403986, -0.0111874035, 0.0393062271, 0.0611206703, 0.0502880774, -0.0194386858, -0.0996847153, 0.0023422418, 0.0673989952, -0.0335744098, -0.0003575404, -0.0039485497, -0.0434844829, 0.0232995395, 0.0383709893, -0.0628270507, -0.0015176657, -0.0380055420, -0.0441577323, 0.0372956097, 0.0869622827, 0.0722328499, 0.0088257920, 0.0365815945, 0.0092547620, 0.0156979188, -0.0383877195, -0.0707170591, 0.0323169976, 0.0234228615, 0.1546678990, 0.0748859048, -0.1263593882, -0.0107771447, -0.0589382946, -0.0968113020, -0.0253587756, -0.0122340918, 0.1453114003, -0.1104271933, -0.1372791529, 0.1189621016, -0.0048759691, -0.0040898332, -0.0740428045, 0.1031807363, -0.2191608697, 0.1667223573, -0.0004923990, -0.0988024101, 0.0717382655, -0.0037807964, 0.0532196164, -0.1007740274, -0.0847427547, -0.1540888697, 0.1460920870, -0.0852580145, -0.0504442528, 0.0537690446, 0.1904848963, -0.0074362005, 0.0137685547, -0.1216009930, 0.0881967619, -0.0404071584, -0.1153962091, 0.0286540501, -0.0176637843, -0.0557016507, -0.1086810529, 0.0860594809, -0.0601758286, -0.0222240444, -0.0044895015, -0.0049467776, -0.0197815541, 0.0237464495, -0.0647371486, 0.0097492673, 0.0065288157, -0.0197818689, -0.0794666633, 0.0174900554, -0.0643303990, 0.0424083509, 0.0777238011, 0.0297627226, 0.0277933050, 0.0838475674, -0.0124637708, 0.0024255035, -0.1049803868, 0.0037658075, -0.0200562738, -0.0138725676, 0.0571092591, 0.0684355721, -0.0221683029, 0.0161466971, -0.0571973920, 0.1819784790, -0.0070563550, -0.1095412746, -0.0350785665, 0.0195588283, -0.0001097385, -0.0036843519, 0.3607981205, -0.0151714524, -0.1191671267, 0.2457922399, 0.0587861650, 0.0743720233, -0.0370973311, -0.0627551004, -0.0942407474, -0.0405421183, -0.2304544002, -0.1898576617, -0.1631130874, -0.0481118895, -0.4640366733, 0.1805444062, 0.3107641637, -0.0044252914, -0.1241713762, 0.0357179865, -0.0939186662, -0.1398101896, 0.1103490144, 0.0596534237, -0.0605711639, -0.0122325532, 0.0137006985, 0.0421117991, -0.0150979972, -0.0230801273, -0.0037425295, -0.0048749503, -0.0564313941, -0.1100783572, -0.0159023218, 0.0458024964, -0.0032600884, 0.1260705143, -0.0347277112, -0.0355269201, -0.0930625275, 0.0189671833, -0.0189959947, 0.0625969395, -0.0290913209, 0.0189808980, -0.1990080029, -0.0230053458, 0.0271735415, -0.0049301097, 0.0719688833, 0.0697250515, 0.1441476941, -0.0457717590, 0.0848693624, -0.1220007911, 0.0022100627, -0.0000018182, 0.0000579740, -0.0000000000, -0.0000000000, 0.0000000000, 0.0000000000, 0.0000000000, 0.0023408746, 0.0012609841, -0.0000000000, -0.0000000000, -0.0000000000, 0.0000000019, -0.0000000000, 0.0000000000, 0.0005285651, 0.0000001773, 0.0000000000, 0.0000000000, 0.0001119692, -0.0000186005, 0.0000000000, 0.0000014748, -0.0000000002, 0.0000000000, -0.0001188718, 0.0000000001, 0.0000088139, 0.0000000000, 0.0010015381, -0.0000000000, -0.0000269346, -0.1047136784, 0.0660716444, 0.0352946706, 0.0819327906, 0.0589971282, -0.0042886240, -0.0044940482, -0.0125031751, 0.0857061222, -0.0302167404, -0.0110436268, -0.0083047915, 0.0480199121, -0.0194932315, 0.0509495027, 0.0261842366, 0.0965561941, -0.0081300642, 0.0034245120, 0.0774447471, -0.0607739761, 0.0083829546, -0.0888295472, 0.0282098781, 0.0015081768, -0.1343077868, -0.0411289036, 0.0622225031, 0.0373352095, -0.0193441305, 0.0249969047, 0.0926539972, -0.0289220009, -0.0825797170, -0.0019051778, 0.0428111851, 0.0169295240, -0.0038747005, -0.0044693397, 0.0709262341, -0.0248891544, -0.0262506381, -0.0051633040, -0.0053756717, 0.0578179993, 0.0936336741, 0.0108154481, -0.0483057611, -0.0513378605, -0.0003482922, 0.0615771823, -0.0544421300, 0.0461367071, -0.1901959032, 0.0351582766, -0.0045633125, -0.0074170996, -0.0112187872, -0.0009489789, -0.0573377796, -0.0383710824, 0.0241184551, -0.0989907458, -0.0075112334, -0.1694871783, 0.0224493835, -0.0366760865, 0.0777338669, -0.0347394347, -0.0033519743, -0.0033340449, -0.1781780422, 0.0008600233, 0.1206827685, -0.1214550957, -0.0074573001, -0.1269628108, 0.0912257805, 0.1220604777, 0.1057003364, 0.0133446865, 0.0333103873, -0.1124514267, 0.0335292891, 0.1140060201, 0.2186712027, -0.1464031637, -0.3215429783, -0.0040971483, 0.0928600505, -0.0295443796, 0.0368406922, 0.0421516374, -0.0644647777, 0.0046849763, 0.1142313629, -0.0208809059, -0.0749688521, -0.0163120609, -0.0402144864, 0.0468265489, -0.0040524700, -0.0048609814, 0.0493964814, 0.0208539888, 0.0663792863, -0.0517627671, -0.0341239795, -0.0390460677, 0.0131251309, 0.0416723602, -0.0152823739, 0.0740448609, 0.0318678841, 0.0825897455, -0.0191480890, -0.0263534691, -0.0195166878, -0.0043544918, -0.0372797363, -0.0107323732, -0.0054662032, 0.0184694864, -0.0518714562, 0.0338026732, -0.0665486157, -0.0361174494, -0.0550404787, -0.0133314999, 0.0053484505, -0.0089558186, 0.0006306415, 0.0177303385, -0.0001218715, -0.0035489469, -0.1119645312, 0.0028911240, -0.0771216154, -0.0379076861, -0.0405887924, 0.0378170498, 0.0591628142, 0.0050892439, 0.0740739182, 0.0172999315, -0.1411229819, -0.0474297963, 0.0218640752, -0.0115906755, -0.1128395647, 0.0275626387, 0.1781753004, 0.0042547728, 0.1590428054, -0.0046587810, 0.0308115203, -0.0205464363, -0.0440126136, -0.0935689062, -0.0445368923, -0.0036331522, 0.0952128097, 0.0480464958, -0.0107928300, 0.0009678610, 0.0000000001, 0.0000000012, 0.0170195438, -0.0222733486, 0.0534525849, -0.0689116567, 0.0089470027, 0.0315891430, 0.1050337851, -0.0597216487, 0.0421990901, -0.0399561264, 0.0279699489, -0.1232507080, 0.0161248092, 0.0439516455, 0.1393699497, -0.0267522447, -0.1812246144, -0.0037165631, -0.0451039448, -0.0107920291, 0.1069735140, -0.0030795129, 0.0615899861, 0.0300656464, -0.0098267831, 0.0310106743, -0.1381311119, -0.0015555222, 0.0463217013, -0.0200901888, -0.0019230839, -0.0044290386, 0.0381243005, 0.0069007222, -0.0684853047, 0.0211043302, 0.0279256348, -0.0391478278, -0.0786678791, 0.1000579745, -0.0733618289, 0.0887681991, -0.0506362356, -0.0664023459, 0.0304307006, -0.0051166685, 0.0007406827, 0.0776760802, -0.0414717309, -0.0115308203, -0.0641112551, 0.0163666829, -0.0204085391, 0.0874068588, 0.0503312200, -0.1206061617, 0.0219185408, -0.0693541467, 0.0368015803, -0.0055133551, -0.0484616496, -0.0132089583, -0.0054612481, -0.0048708990, -0.0565616749, 0.0175095722, -0.0357055254, 0.0157713555, -0.0185587145, -0.0383183286, 0.0119249225, 0.0560582802, 0.0062606027, -0.0355635844, -0.0645016357, -0.0599103384, -0.0447726846, -0.0077259983, -0.1013223827, -0.0691357255, 0.0324594714, 0.0018979852, -0.0527694970, 0.0366669409, 0.0549154356, 0.0504531600, 0.0374578200, 0.0775229037, -0.0653863326, -0.0482612699, 0.0114611173, 0.0211178102, 0.0754116923, -0.0599446632, -0.0028479996, -0.0000042352, 0.0315906703, -0.0558944084, -0.0150402375, -0.0696644336, -0.0091632633, 0.0939629972, 0.2340255529, 0.0804136544, -0.0384101421, 0.0540479980, -0.0600029901, 0.0467972644, -0.0847718045, 0.0047013541, 0.0263979733, -0.0781796575, -0.1828725189, 0.0084127467, -0.0902496651, -0.1063132137, 0.0318440199, -0.0452230386, -0.0281404145, -0.0119213723, -0.0323271342, -0.1057594270, 0.0182656739, 0.0554802381, -0.0884969383, 0.0437398143, -0.0002455888, -0.0011832983, 0.0430398621, -0.0551625863, 0.0792892873, -0.0429338142, -0.0384036675, 0.0903988779, -0.0427221395, -0.1093526185, -0.0074060569, -0.0336670280, -0.0482363552, 0.0018443377, 0.0061971215, 0.0549518652, 0.1005297005, -0.0246353820, -0.0716293827, -0.0073048924, -0.0250338074, -0.0537230335, 0.1167763993, 0.0029989958, 0.0498432033, 0.0285698641, 0.0583893098, -0.0331348702, -0.0098642474, 0.0132186785, -0.0723789260, -0.1604284644, -0.0001925271, -0.0039013051, -0.0266532023, 0.0181239154, 0.0367756449, -0.0034685468, -0.0014840022, -0.0075210724, 0.0579494014, 0.0671011731, 0.0093978969, 0.0470806994, -0.0552203692, 0.0752191395, 0.0033238744, -0.0452600867, 0.0426340289, -0.1096720472, 0.0385697111, 0.0222863238, 0.1142100021, -0.0509904511, -0.0215590391, 0.0521648638, -0.0847845897, -0.0119346483, -0.0648604408, -0.0792918131, 0.1062826812, -0.1421653032, -0.0665427670, 0.0658441484, -0.0045917626, -0.0039994312, -0.0302030928, 0.0800105855, -0.2476137727, 0.1045802683, -0.0048253615, -0.1411821693, 0.1973094791, -0.0862158015, 0.0197968762, -0.1365215331, -0.0107732965, -0.1726301461, 0.0069724647, 0.0239812024, -0.1804456711, 0.0555980392, -0.1597824693, -0.0071357023, -0.0076709981, -0.0625133812, 0.0171095431, -0.0502901524, -0.0493680574, 0.0769604743, -0.1814532131, -0.0645631775, 0.0342309214, 0.0479975194, 0.0363318957, 0.0060447822, -0.0045368671, -0.0049516186, -0.0276633259, 0.0598131642, 0.0832114816, -0.0875429139, -0.0205700547, -0.0471883267, -0.1106979698, 0.0238179155, -0.0148348585, 0.0644763261, 0.0668505356, 0.0743152797, 0.0980094373, 0.0573182330, 0.0457129739, -0.0437694117, 0.0017629488, 0.0036412424, -0.0893634409, -0.0264944304, -0.0515667982, 0.0229140278, -0.0642318279, -0.0311021321, 0.0695391223, 0.1300412714, -0.0982428864, -0.1409488171, -0.0568716638, 0.0004036809, -0.0007809226, -0.0038513981, 0.2333722711, 0.0507797226, -0.2143801749, 0.0999774039, 0.0202822108, -0.1289874911, -0.0274614785, -0.0401115417, -0.0438433178, -0.0097970339, -0.0399564616, -0.2440951169, -0.1462618858, -0.0677897558, -0.1121223643, 0.0468253158, 0.1599344611, -0.0060693803, -0.1710284054, -0.1767050922, 0.0400201157, 0.0527955256, 0.0208334569, 0.1556522250, -0.1593978107, 0.0553082302, -0.1077288315, 0.0151934624, 0.0965269953, 0.0338115357, -0.0038494063, -0.0048897211, -0.0775363222, -0.1204604954, -0.0459231660, -0.0057053529, -0.0158242844, 0.0628910065, -0.0247797742, 0.0208731182, -0.0318121314, 0.0962123573, -0.0289614219, -0.0410459638, 0.0058525531, 0.0532294735, -0.0753442496, 0.0316297747, 0.0574854799, -0.0050930413, 0.0203024335, -0.0430375114, 0.1508774161, -0.0602513179, 0.0857446045, -0.0360957496, 0.0391468070, 0.0000184942, 0.0000011173, 0.0000000000, 0.0000000000, -0.0000000000, 0.0000000000, 0.0000000000, 0.0019377470, 0.0006098655, -0.0000000000, -0.0000000000, 0.0000000000, 0.0000000034, 0.0000000000, -0.0000000000, 0.0001626055, 0.0000001195, -0.0000000000, 0.0000000000, 0.0000066483, -0.0000129150, -0.0000000000, -0.0000000093, 0.0000000000, -0.0000000000, -0.0000942233, 0.0000000002, 0.0000003065, 0.0000000000, 0.0016106019, 0.0000000000, -0.0000235477, -0.0233385358, -0.0199382976, 0.0383379981, 0.0871508941, 0.0580658652, -0.0042172237, -0.0044402392, -0.0147347385, 0.0185406916, 0.0811778232, 0.0042755287, -0.0086227860, -0.0540248603, -0.0359449685, 0.0791262388, 0.0955441445, 0.0354007781, 0.0882467479, 0.0930147320, 0.0556814112, -0.0408949107, 0.0423695818, 0.0285062417, -0.0539906137, 0.0029489852, -0.1487624347, -0.0245288350, -0.0192808025, 0.0192235094, 0.0291870404, 0.0811378583, 0.0433671512, -0.0819289386, 0.0622423477, 0.0157908760, 0.0115021858, -0.0166648552, -0.0048617590, -0.0044326484, -0.0511781387, 0.0515847616, 0.0389139354, -0.0670902953, -0.0422141962, 0.0611914881, -0.0521107614, 0.0492890924, -0.0018571302, 0.0061191134, -0.0261826254, 0.0740818828, 0.1301944852, -0.0653922334, -0.0340470485, -0.0390649810, -0.0152065353, -0.0079991268, -0.0360593870, -0.0115450863, -0.0005883144, -0.0475422069, -0.1176592931, -0.1235586032, 0.0063809664, 0.1880016625, 0.0026855548, -0.1350129992, -0.0665324032, 0.0584905781, -0.0006184576, -0.0024486331, 0.1648783833, 0.0350439847, -0.0978382081, 0.1503049433, 0.0654957816, 0.1055303216, -0.0769080669, -0.1035787091, -0.0044239271, -0.0972260013, -0.0684836954, -0.1135997251, -0.0391160622, -0.1488881260, -0.0284079891, 0.0598711371, 0.0997911021, -0.0078087682, -0.0712369010, 0.0739886612, -0.0306670796, -0.0569218919, 0.1483100206, 0.0201810468, -0.1140240952, -0.0869666040, 0.0267789438, -0.0137143219, 0.0600390658, -0.0023647735, -0.0051146206, -0.0048612477, 0.0622465312, 0.0317910239, 0.0488941185, 0.0791922733, -0.0042947698, 0.0384010486, 0.0834552795, -0.0513124838, 0.0214359369, -0.0314600170, -0.0209155977, -0.0520042218, 0.0918334126, 0.0124879526, 0.0462313704, -0.0295034610, 0.0931960940, -0.0099879922, 0.0406280570, -0.0376015194, 0.0215844624, 0.1144113839, -0.0185402781, -0.0304848086, -0.0340176672, 0.0790363699, 0.0375884175, -0.0479898565, -0.0536892861, 0.0523026511, -0.0000081401, -0.0021805437, -0.2605004907, 0.0161899235, -0.0381200388, -0.0340115838, -0.0444529355, -0.1360552162, -0.0397881344, -0.0290071983, 0.0555712879, -0.0445266254, 0.1584465951, -0.0351288617, 0.0121528078, -0.0505556054, -0.0698451474, -0.0318820141, -0.1839049608, -0.0032805584, -0.0398836210, -0.0184938367, 0.0555327535, -0.0786779001, 0.0584939718, -0.0326481089, -0.0593587495, 0.0551342741, -0.1704958379, 0.0722255632, 0.0601635836, -0.0265650377, -0.0000019304, -0.0005289346, 0.0044007134, -0.1466219723, 0.0155716306, 0.0083652353, -0.0130110979, 0.0853478089, -0.1749627292, 0.0364863314, -0.1195253432, 0.0379065759, -0.2397733033, 0.0516727269, -0.1520963013, 0.0834336281, 0.0271607377, -0.0994135439, -0.1899737269, -0.0133148823, 0.0749237016, 0.0878404900, 0.0257606376, 0.0178857371, 0.1382510513, 0.0647600293, 0.0461300835, -0.0686715990, 0.0158409327, 0.0550799333, 0.0696509853, 0.1066252068, -0.0009956374, -0.0042859223, 0.0118431672, 0.0175971352, 0.0278456677, 0.0177553669, 0.0289644860, 0.0790363625, -0.0208767019, -0.0101482207, -0.0133391125, -0.0233560316, 0.0259741712, -0.0102735655, -0.0849828571, -0.0824747980, -0.0889034122, -0.0087902537, 0.0301682334, -0.0125706894, -0.0727600232, 0.0356383398, 0.0373359472, -0.0947580114, 0.0630915239, -0.1029775366, 0.0577751622, 0.0481614918, -0.0167013910, 0.0950504169, 0.0199276060, -0.0711208656, -0.0054055704, -0.0048498898, -0.0910340324, -0.0895079151, -0.0104051745, 0.0295557510, -0.0340750180, -0.0749894902, -0.0438215323, 0.0267111976, 0.0491361618, 0.0538617894, 0.0905987322, 0.0383897983, -0.0186174065, 0.0761509016, -0.0738808066, -0.1529657245, -0.0076380675, 0.0020275563, 0.0244887006, 0.0224138219, 0.0834173337, -0.0545457266, -0.0110050626, -0.0225200802, -0.0067834570, 0.0991850570, -0.0836154670, -0.0147662498, 0.0688716695, -0.0787650421, -0.0029620498, -0.0002845588, -0.0263324585, 0.0512749515, 0.0906691998, -0.1283999532, -0.0069400026, 0.0143841403, -0.1997311711, 0.0394888781, -0.0553814732, 0.0952408239, 0.0631318092, -0.0014320795, -0.0262651127, -0.0068869484, 0.1433499753, 0.0375721641, -0.0601629391, 0.0050267298, -0.0229457337, -0.0867475197, -0.0590775460, 0.1215651035, 0.0284279454, -0.0426317379, 0.0320681781, 0.0579647310, -0.0057286420, 0.0491234921, -0.0068620313, 0.0317553394, -0.0006422958, -0.0019206122, -0.0937044024, -0.1239487827, 0.0188746508, -0.1551351994, 0.0186437014, 0.0487895869, -0.0264632422, -0.0521127172, -0.0904315263, 0.0424999483, -0.0104119908, 0.0024538431, -0.0842042044, 0.0307252724, -0.0809108764, -0.0626534969, -0.2176430672, -0.0063070338, 0.0206386074, 0.0584201589, 0.0773359463, -0.0292046331, 0.0965843126, 0.1098007858, 0.0501293838, 0.0496786311, -0.0912735760, 0.0377482325, 0.0183239877, -0.0852865353, -0.0001948170, -0.0036891508, 0.0453093536, 0.0560548641, 0.0713590533, -0.0147783523, -0.0161990616, -0.1503164172, -0.0477738194, 0.0163053814, 0.0282173585, 0.0772078261, 0.0474981889, -0.0073127802, -0.0231920313, -0.0881106630, -0.0657209232, -0.0009843218, -0.0355213843, 0.0014695472, -0.0967217982, -0.0561838746, 0.0148210870, -0.0292606764, 0.0433585234, -0.0708556771, -0.0274850614, 0.0669379905, -0.0134869218, -0.1394104511, -0.0936253667, 0.1365471482, -0.0058497600, -0.0040275925, -0.1471119523, -0.0328167565, -0.0937026218, 0.0688786432, -0.0275140908, -0.0840593874, -0.1531777084, -0.0623369701, 0.0943914950, 0.0197592434, 0.0314464718, 0.0448743626, 0.0672695339, -0.0992083699, 0.2159648389, -0.0181634370, 0.0601815730, -0.0058170711, -0.0602332428, -0.0574020259, 0.0925922468, 0.0443128347, 0.0358890705, 0.1326061338, 0.0499117598, -0.0047210930, -0.0344071500, 0.0509595312, 0.1010493413, -0.0429943129, -0.0044281739, -0.0049326406, 0.0250905119, -0.0508922711, -0.0764401183, 0.0588625371, 0.0090607973, 0.0339885615, 0.0241674036, -0.0028503430, -0.1031827778, -0.0346658006, -0.0419303887, 0.0066830395, -0.1063867509, -0.0716906339, 0.0892019719, -0.0286080819, 0.0531315207, 0.0045149093, 0.0423964672, -0.0153932720, 0.0620285235, 0.0557071865, 0.0309577994, -0.1317734271, -0.0373869576, 0.0236611310, 0.0606497303, -0.1298269033, -0.0616605021, 0.2702615261, 0.0000000000, -0.0036829587, 0.2151624709, 0.0743638128, -0.1886894256, 0.0790413097, 0.0382415578, 0.1187950224, -0.0743115172, -0.0580205582, 0.1876316518, -0.0427410752, -0.2388974875, -0.1436813623, 0.0934361666, -0.1026704088, -0.2973829210, 0.1269259006, 0.1658847034, -0.0073852185, -0.1595541090, 0.0774306953, -0.2023913562, -0.2934158742, -0.1555234045, 0.1293870658, -0.0543145537, 0.0509171933, 0.1301782429, 0.0210934114, -0.0090371184, -0.1797136366, -0.0036989108, -0.0048328680, -0.0717923865, 0.0132123781, 0.0118046543, 0.0625720620, -0.0330519713, -0.0583962575, -0.0030262393, -0.0025686640, -0.0128619391, -0.0286811963, 0.0627321601, 0.0469218530, -0.0044345744, 0.0561954938, -0.1059404463, -0.0754631981, -0.0310416352, -0.0057004867, 0.0018093416, -0.0425810702, -0.0384723842, -0.0413887762, 0.0423994288, -0.2751686871, -0.0388715602, 0.0000092988, 0.0001898896, -0.0000000000, 0.0000000000, -0.0000000000, -0.0000000000, -0.0000000000, 0.0019223266, 0.0018235306, 0.0000000000, 0.0000000002, -0.0000000000, -0.0000007147, 0.0000000001, 0.0000000000, 0.0010247328, -0.0000445674, 0.0000000000, 0.0000000000, 0.0010086159, -0.0001390680, 0.0000000000, -0.0000001663, 0.0000000000, -0.0000000000, -0.0006196246, 0.0000000001, 0.0000134669, 0.0000000000, 0.0009065819, 0.0000000000, -0.0001413662, -0.0394965783, -0.0665346235, 0.0672311038, 0.0333293676, -0.0826115459, -0.0042985296, -0.0045213825, -0.0021718424, 0.0240540560, -0.0803102776, 0.0771038532, -0.0184230357, 0.0676946118, 0.0217344258, 0.0588714704, 0.0487045348, 0.0108655486, -0.0114989011, -0.0735909939, -0.0623781048, 0.0773063004, 0.0805080757, -0.0993894935, 0.0497501418, 0.0015136022, 0.0226751957, 0.0552346930, 0.0258364286, 0.0037471289, -0.0312615633, 0.0057372241, 0.0666479096, 0.0009707270, 0.0113364374, 0.0139621282, 0.0133945234, -0.0502657704, -0.0039039806, -0.0044240947, 0.0381539129, 0.0320937671, -0.0270034615, -0.0187730249, 0.0027591749, 0.0255170818, 0.0012696770, -0.0011531726, 0.0515596718, -0.0115066227, -0.0035409203, 0.0221335571, -0.0288010351, -0.0320117325, -0.0337393545, 0.0332159735, -0.0738528967, -0.0080454024, -0.0483911373, 0.0464827940, -0.0245427042, -0.0014436764, 0.0339009613, -0.0848570243, 0.0011971274, -0.0430741459, -0.1668309122, 0.0286997836, 0.0873838440, -0.0086844144, -0.0028339049, -0.0027181476, -0.0103053581, 0.0349024870, -0.0992776677, -0.0966456383, 0.0543761812, -0.0592896305, 0.0424802341, -0.0291985273, 0.0649654046, -0.1030442864, 0.1352917403, -0.0714970380, -0.0812013820, -0.0412517004, 0.1135285497, -0.1006219238, -0.1043923050, -0.0062900241, 0.1654946059, 0.0379237346, 0.1337422282, 0.0076157455, -0.1123518869, 0.0240816250, -0.0259755198, -0.0643864721, -0.0641125217, -0.0432686247, 0.0119795278, 0.0247749407, -0.0050883191, -0.0048639057, 0.0752150491, -0.0342549346, -0.0591664985, 0.0265189521, -0.0172724780, -0.0046357005, -0.0435799845, -0.0323908255, -0.0580782294, 0.0599183105, 0.0440094508, -0.0443609059, -0.0309361834, 0.0192422308, 0.0693305209, 0.0281174816, 0.0559025519, -0.0098305224, -0.0031397527, -0.1183978096, -0.0749248788, 0.1125502065, -0.0858053640, -0.0946429670, 0.0176429916, 0.1055792496, 0.0246618241, -0.0602954067, -0.0557387844, 0.0144168474, -0.0000129259, -0.0022263599, -0.1727499068, 0.0186283775, -0.0582569130, -0.0083957370, -0.0439088978, -0.1522753388, -0.0048743454, -0.0435694046, 0.0655097216, -0.0551282428, 0.1341059804, -0.0599221326, 0.0173753947, -0.0472836941, -0.0718223602, -0.0376664288, -0.2067859620, -0.0014572133, -0.0337299928, -0.0133709246, 0.0297781974, -0.0916062072, 0.0633923560, -0.0516718701, -0.0423581190, -0.0157717336, -0.1440043896, -0.0306893140, -0.0163095370, 0.0553009212, -0.0000000452, -0.0003654197, 0.0212921705, -0.0720879957, 0.0642304197, -0.0933521017, 0.0167274363, 0.0838372335, 0.0395677611, 0.0922288150, -0.0717037469, 0.0597000048, -0.1680750251, 0.0886184424, -0.0944212154, 0.0891931579, 0.0915399641, -0.0578958243, -0.1463937461, -0.0095854755, 0.0238133054, 0.1786568314, 0.0343092009, -0.0571312532, 0.1159839556, 0.0783254653, 0.0848799124, 0.0178636927, -0.0660178289, 0.0069628460, -0.0217566323, 0.0902998075, -0.0012448957, -0.0043116091, 0.0905078202, -0.0520261787, 0.0474676155, -0.0171745885, 0.0464672372, 0.0073392862, -0.0512411483, -0.0005167408, -0.0457337461, 0.0558042005, -0.0787624046, 0.0428605154, -0.0598727167, 0.0183629282, -0.0924535617, -0.0462123863, -0.0601121113, -0.0126156872, 0.0256295949, -0.0151626971, -0.0677721575, 0.0583249554, -0.0543507822, -0.1349102855, -0.0428453721, 0.0341067649, 0.1155120656, -0.0085933600, -0.0139495684, 0.0267394539, -0.0054294528, -0.0048508630, -0.0831075013, -0.0932452977, 0.0683921427, -0.0130934669, -0.0255548749, 0.0084075546, 0.0248773992, -0.0046858266, 0.0156143755, 0.0590181686, -0.0198465716, -0.0380627252, -0.0614066757, -0.0500980988, -0.0105709974, -0.1635339260, 0.0248837397, 0.0016792951, -0.1287154257, 0.0643114820, -0.0048093577, 0.0259529259, -0.0003851633, -0.0235421862, -0.0008614389, 0.0240249410, 0.0817232132, -0.0273381490, 0.0446672402, -0.0736107007, -0.0026365761, -0.0001308597, -0.0684508160, 0.0730035827, -0.0463709533, -0.1018692181, 0.0002015198, 0.0637131631, -0.0584401563, 0.0648154989, 0.0733027980, 0.0649387017, 0.0002133162, 0.1309959590, 0.0769755989, 0.0440835319, 0.0492225513, 0.0540861003, -0.0913454667, 0.0059353909, -0.0134370252, -0.0228344407, -0.0105689587, 0.0765708759, -0.0187541265, -0.0425082855, -0.0439752713, 0.0328490287, 0.0251194444, 0.0269512944, 0.0275942367, 0.0371828154, -0.0006832654, -0.0018964612, -0.0985914916, -0.1062312424, 0.0477685891, -0.1571699083, 0.0004656076, 0.0609364174, -0.0320860967, -0.0430323258, -0.0587533116, 0.0467853025, 0.0025943483, -0.0009787770, -0.0616755448, 0.0300063174, -0.0560225435, -0.0995782763, -0.2330170423, -0.0054605403, 0.0028231160, 0.0084921755, 0.0501749478, 0.0069870432, 0.0564505793, 0.0764990598, 0.0662849322, -0.0248806253, -0.0009188661, 0.0103931166, 0.0616006590, 0.0447352082, -0.0002042824, -0.0037111109, -0.0439233147, 0.0590975881, 0.0138410125, -0.0122294165, -0.0168899745, -0.1046530083, 0.0163305104, 0.0826464295, 0.0583208911, 0.0428771935, 0.0277971905, -0.0000026584, 0.0410014503, 0.0559188314, 0.0367752314, -0.1193759218, 0.0528554916, 0.0077318968, -0.0402223468, -0.1007629856, 0.0679646283, 0.0765561461, 0.0064050108, -0.0966990367, 0.0527566187, -0.0730053931, 0.1263975501, -0.1035525426, -0.1458906233, 0.1635303050, -0.0049801022, -0.0040288372, -0.1627113372, 0.1299990267, -0.0130580496, -0.0593233928, -0.0187473893, -0.0584092140, -0.0683635697, -0.0551054887, 0.0699393451, -0.1012701020, 0.1776381731, -0.0975979269, 0.0750698671, -0.0543763116, 0.1387664378, 0.0512995347, -0.1122499555, -0.0071215122, -0.0124845961, -0.1219608262, 0.0860060602, 0.1033411175, 0.0139435353, -0.0032485847, -0.0177902840, 0.0018458760, 0.0222075470, 0.0009794595, 0.0783355236, -0.1123495698, -0.0045072716, -0.0049404982, -0.0145398099, 0.0334787033, 0.0133334333, 0.0166747700, -0.0004357973, -0.0955612063, 0.0162570179, 0.0257429164, -0.0942310169, 0.0054824390, -0.0727043748, 0.0431774370, -0.0423465744, -0.0448269024, -0.0339198522, -0.0392429605, 0.0431848168, 0.0046271100, 0.0835257396, 0.0331526510, 0.0624129847, 0.0583856292, 0.0456301421, -0.0386235714, 0.0395936631, 0.1128943488, -0.1392800063, -0.1412814707, -0.0708133131, 0.2771419585, -0.0001640578, -0.0036908407, 0.3059172928, 0.0990329236, -0.2539507747, 0.1878065914, 0.0569638461, 0.0337886661, 0.0965112373, -0.1501748413, -0.0813095868, -0.1226256713, -0.0631322861, -0.1041777879, -0.0775916576, -0.1926717013, -0.2892744839, 0.0956981555, 0.2344880700, -0.0066313841, -0.0720237568, 0.0884198919, -0.2818554938, -0.1830138117, -0.0018361046, 0.1496662647, -0.1519996673, -0.0021626756, -0.0227778293, 0.0093259457, -0.0143914698, -0.1606312692, -0.0036520453, -0.0048337709, 0.0022856216, -0.1059756726, 0.0557145514, 0.0914314911, -0.0028632691, 0.0110478681, -0.0033220795, 0.0589715093, 0.0036929019, 0.0259534009, 0.0835672393, 0.0665889457, -0.1198575497, -0.0454651117, -0.1442180574, 0.0324041918, -0.0143239619, -0.0058055748, -0.0648929924, -0.0508748665, -0.0686295852, -0.0159144346, 0.0763243809, -0.0976491421, 0.0111033292, 0.0000051650, 0.0000603360, 0.0000000000, 0.0000000000, -0.0000000000, 0.0000000000, 0.0000000000, 0.0015028645, 0.0018412594, -0.0000000000, -0.0000000010, -0.0000000000, -0.0000010146, -0.0000000001, -0.0000000000, 0.0009957018, -0.0000319933, -0.0000000000, 0.0000000000, 0.0007437002, -0.0001106403, 0.0000000000, 0.0000000008, 0.0000000005, -0.0000000000, -0.0005511922, -0.0000000000, -0.0000000111, 0.0000000000, 0.0004106841, -0.0000000000, -0.0001099659, -0.0798722208, -0.0582318604, -0.0006248291, 0.0505544133, 0.0368338637, -0.0042137727, -0.0045210165, -0.0212301444, -0.0554051697, -0.0544049852, 0.0285293814, -0.0103596123, -0.0180292372, 0.0226843748, -0.0040583862, 0.0379589163, 0.0741209015, -0.0085745882, 0.0483588949, -0.0533923022, 0.0084884381, 0.0849864855, -0.0783502236, 0.1083892062, 0.0023456942, 0.0274400450, 0.0946930647, 0.0596749559, 0.0262740720, 0.0452342741, 0.0088884244, 0.0504246242, 0.0393674709, -0.0406707153, 0.0137586631, 0.0423575714, -0.0121858632, -0.0038766260, -0.0044404124, 0.0987093747, -0.0255090687, 0.0436288752, -0.0155348685, 0.0033604570, 0.0446192808, 0.0122853741, 0.0001592345, -0.0158129185, -0.0006728883, 0.0127814477, 0.0251196437, -0.0747711584, -0.0055177747, -0.0245752316, 0.0091073494, -0.0486462153, -0.0081113437, 0.0391116366, -0.0380366594, -0.1058551371, -0.0069473311, -0.0135992570, -0.1314230859, 0.0707880557, -0.0735434443, 0.0620022714, -0.0662741810, 0.1315681189, -0.1214972287, -0.0034922967, -0.0030799762, -0.1809995621, 0.0218328889, 0.0823082253, -0.1304869652, -0.0144654540, -0.2418738455, 0.0707696229, 0.1436077505, 0.1044958085, 0.1091518700, -0.0266205408, -0.1148155779, 0.0445580557, 0.0648882836, 0.0879703015, -0.1450793445, -0.3295783103, -0.0054886239, 0.1220586896, -0.0569132715, 0.0071300725, -0.0115521466, -0.1529075652, -0.0666853637, 0.0750776753, -0.0853729993, -0.0788388848, 0.0087090191, -0.0439206809, 0.0152482726, -0.0050458470, -0.0048641292, 0.0613920689, 0.1139241457, -0.0339241438, 0.0320791192, -0.0281817000, 0.0122121237, -0.0509156846, -0.0531462431, 0.0495156124, -0.0712099448, -0.0619074851, 0.0571824461, -0.0149735678, 0.0605305284, 0.0572581179, 0.0032227738, 0.1017836034, -0.0099135023, 0.0162674207, -0.0857662186, -0.0629024729, 0.0300887153, -0.1020047739, -0.0939500481, 0.0479455777, 0.1219329238, -0.0025131688, -0.0729994848, -0.0477400012, 0.0068159956, -0.0000015883, -0.0023521041, -0.0718365163, 0.0141228503, -0.0481633395, -0.0286992490, -0.0543853231, -0.1330111474, -0.0142560760, -0.0251771584, 0.0542677306, -0.0404795706, 0.1315454692, -0.0572062470, 0.0129064284, -0.0525194742, -0.0770203844, -0.0120517230, -0.1960427612, -0.0012114460, -0.0192077085, 0.0220083687, -0.0161617231, -0.0788587034, 0.0741382390, -0.0686364546, -0.0304569062, -0.0410727300, 0.1155382544, 0.0063026906, 0.0117309373, -0.0350566804, 0.0000000000, -0.0000009323, -0.0749524012, -0.0304190628, 0.0235362574, -0.0441386141, 0.0266097747, 0.0335464589, 0.0644280165, -0.0398398489, 0.0245834067, -0.0065816469, -0.0047297603, -0.1491214335, 0.0339622609, 0.0468339622, -0.0488136299, -0.0321096405, -0.2353217304, -0.0041835913, -0.0502681583, -0.0118506569, 0.0421078838, -0.0514561608, 0.0148583632, 0.0323290452, 0.0449391529, -0.0333908349, -0.1084897146, -0.0121225026, -0.0472055823, -0.0104565518, -0.0020271784, -0.0043946453, -0.0131517975, 0.0009441920, 0.0127493171, -0.0234684367, 0.0290479939, -0.0837794542, -0.0326810442, 0.0336474665, -0.0219874401, 0.0770425349, 0.0430261418, -0.0744071826, -0.0454649068, -0.0144328093, 0.0431680791, 0.0717633069, -0.0548347831, -0.0127385333, -0.0954690948, -0.0416001230, 0.0483595282, 0.0729472786, 0.0282778498, -0.2106837630, -0.0848515853, -0.0556863062, -0.0372730754, 0.0517651550, -0.0470539033, -0.0519057885, -0.0054492960, -0.0048481422, -0.0503431112, -0.0191925075, 0.0498353764, -0.0103116771, -0.0137822181, 0.0342125073, 0.1222785115, -0.0125962803, 0.0377997644, 0.0115534542, -0.0324536264, 0.1112140268, 0.0442132913, 0.0179792009, -0.1394223422, -0.0770912468, -0.1383632421, 0.0019536871, -0.0996102616, 0.0963518545, -0.0489915647, 0.0058292323, 0.0847231224, -0.0490997732, 0.0573521480, -0.0116701908, 0.0163521189, 0.0201278888, 0.0787297189, -0.1379768997, -0.0028395352, -0.0000036731, -0.0057571139, -0.0639694706, -0.0197067354, 0.0592037514, -0.0117546115, 0.0730039030, 0.3205476105, 0.0221555717, 0.0284827240, 0.0908505395, -0.0035431855, 0.0351760574, 0.0441153087, 0.0502838716, 0.0455438159, 0.0588426217, -0.0975715071, 0.0086690560, -0.0223875903, 0.0086974772, -0.0833683908, 0.0646996200, -0.0685162023, -0.0892147645, 0.0681667924, 0.0182221755, 0.0510951951, 0.0223439354, 0.0348247178, 0.0361653529, -0.0006695757, -0.0018896151, -0.1139851734, -0.1033076122, 0.0540128127, -0.1403805017, -0.0325374976, 0.0386612788, -0.0856183767, -0.0097748050, -0.0305270404, 0.0584231392, -0.0396973826, 0.0247336030, -0.0405928902, 0.0253454726, -0.0517537035, -0.0805488676, -0.2491638362, -0.0050617177, -0.0235469881, -0.0185584109, 0.0841937661, 0.0243427549, 0.0649746731, 0.0823173597, 0.0657259896, -0.0206091497, 0.0648002476, -0.0460185111, 0.0575493462, -0.0937561244, -0.0000991399, -0.0036624437, -0.0189009961, -0.0296913087, 0.0090770954, -0.1119065732, 0.0018338831, -0.0643502772, 0.1162772998, -0.0109103713, -0.0395150594, 0.0078373924, -0.0366545394, -0.0655103326, 0.0481135733, 0.0660965964, 0.0353494845, -0.0448871143, -0.0042144582, 0.0044482499, 0.0275493786, -0.0919112042, -0.1015981883, -0.0289381444, -0.0889537632, -0.0845451653, -0.0328700282, -0.0750899091, 0.0804433823, -0.0666129589, -0.1477609128, 0.0698173419, -0.0047251862, -0.0039528762, -0.1523085982, 0.0804294497, -0.1295607090, 0.0324683338, -0.0051245396, -0.1551627368, 0.0189957693, -0.0508954227, 0.0356781632, -0.0506477877, 0.1640768498, -0.0156954154, 0.0268741865, 0.0485119335, 0.1008936688, -0.0038867767, -0.3338776231, -0.0064800465, 0.0176722258, -0.0472934321, -0.0009914498, 0.0709079728, -0.0723353028, -0.0033567380, -0.1115843058, -0.0211318489, 0.0519758612, 0.0234830752, 0.0496763475, 0.0062573729, -0.0045461459, -0.0049461657, -0.0531183928, 0.0032022484, 0.0822162628, 0.0026020017, -0.0300955009, -0.0473936908, 0.0164714623, 0.0823390037, -0.0037428667, 0.0539737679, 0.0551083796, -0.0644601732, 0.0699852780, -0.0009197734, 0.0259547792, -0.0622829571, 0.0811117366, 0.0045329919, -0.1071166992, -0.0669406727, 0.0239153635, 0.0151866563, 0.0238583162, -0.1001132131, 0.0370719172, 0.1601901203, -0.1404681057, -0.1049803346, -0.1117341369, 0.2898685932, -0.0011000050, -0.0038563230, 0.1362367868, 0.1283849180, -0.1337651610, 0.1154853925, 0.0161516797, -0.2440064102, 0.1133956760, -0.0443223268, -0.0422741286, -0.1368675828, 0.0147885149, -0.1297570318, 0.1204868555, -0.0931647196, -0.0060754698, 0.0045908163, 0.0227527283, -0.0074515068, -0.1900289059, -0.0870919004, -0.1237219647, 0.0622984916, -0.0705224872, 0.0675634742, -0.1532994211, 0.1113840342, 0.0603476577, 0.0161860771, 0.0353825651, -0.1311339736, -0.0037530332, -0.0048524495, 0.0256857146, -0.1017286628, -0.0510405898, 0.0822965428, -0.0148617746, 0.1027034000, -0.0624473952, -0.0254237056, -0.0352960862, -0.0272541959, -0.0320145078, 0.0688466579, -0.0587956570, 0.0387188420, -0.1631147116, 0.0377810895, 0.1332067996, -0.0063012666, 0.0147265587, -0.0148427533, 0.0716477707, -0.0898977146, 0.0969826207, -0.1650363803, -0.0330104008, 0.0000070128, 0.0000131675, 0.0000000000, 0.0000000000, -0.0000000000, 0.0000000000, 0.0000000000, 0.0007950125, 0.0015027063, -0.0000000000, 0.0000000016, -0.0000000000, -0.0000001407, 0.0000000001, 0.0000000000, 0.0005201742, -0.0000164950, -0.0000000002, -0.0000000000, 0.0003385060, -0.0000468458, 0.0000000000, -0.0000000001, -0.0000000107, 0.0000000000, -0.0003830519, -0.0000000000, -0.0000000000, 0.0000000000, 0.0002050774, 0.0000000000, -0.0000576715, -0.0044806693, 0.0662831739, 0.0171726290, 0.1016127989, -0.0286404770, -0.0050000539, -0.0044744508, -0.0152884107, 0.0731299818, 0.0316506363, 0.0183097031, -0.0099228006, 0.0318552107, -0.0021159630, 0.0642735735, 0.0079919072, 0.0895603448, -0.0861583576, 0.0846300200, -0.0136823189, -0.0148047572, 0.0559712462, -0.0006830863, 0.0688021556, 0.0035775311, -0.1008566543, -0.0130921947, 0.1346590221, -0.0536074005, 0.0993052348, -0.0042243386, 0.0337929241};

#endif

#endif
